1.46478452324
0.0767982308219
0.949520208525
1.11995693926
-0.256007725849
0.685069678798
0.0162189411802
-0.520422970787
-3.4970668846
-0.334189163747
-0.0640074172516
-0.691653233731
-0.716571276417
-4.57240869602
-0.380243302826
-1.64784584484
-1.31997511505
-1.21602032945
-2.3750114126
-1.8259526419
-2.06625623926
-1.77032967452
-0.219137466494
-0.234126233774
0.329157864945
1.58502730288
-0.763004205223
0.6486132654
-5.2435516853
1.29690628136
-0.435093988245
-0.959249080871
1.77203776179
0.788667603394
-0.926682413896
-1.21871813487
-1.10565907438
-0.460136413294
-0.398097355301
-1.32817901568
-0.371272017012
0.460723978898
-1.13786415967
-1.01178908557
-0.642734575596
-1.18010059599
-4.05646556535
0.128099298183
0.315752128239
-0.0643915479038
0.266973444823
-0.433207876201
-0.66480977758
-0.0733417447158
0.000194120998464
-0.578868302886
-0.913390031459
-0.192136288531
1.3836470329
-0.24269966621
0.533829883002
0.199470028278
-0.0123259830753
0.476088745655
0.0179860241182
-0.135302841703
-1.12190296272
-2.45387668571
-0.557249154248
-2.23913503871
-0.472489345601
-1.36316724801
-0.605486995056
-0.151867623546
-0.497780016288
-2.00714022741
-1.29215425959
-0.51198407603
-2.92479341939
-3.5715064913
-0.931920213687
-1.10508921196
-0.936005653631
-0.433777601449
0.430245683352
-0.0692570530492
-0.657299612527
0.0697937110809
-0.98115447659
-1.22852701967
-1.45497489996
-4.78095037294
-1.37592799686
-0.234629171996
-1.00074022684
-0.561113546934
-1.43705300963
-0.360804701561
-1.67859193424
-0.711978618459
-1.09276484457
-1.55188242686
-0.493830432938
-1.06864061321
1.029921322
-0.927432238732
